<?xml version="1.0"?>
<opencv_storage>
<my_svm type_id="opencv-ml-svm">
  <svm_type>C_SVC</svm_type>
  <kernel><type>LINEAR</type></kernel>
  <C>5.0000000000000000e-001</C>
  <term_criteria><epsilon>1.0000000133514320e-010</epsilon>
    <iterations>2147483647</iterations></term_criteria>
  <var_all>256</var_all>
  <var_count>256</var_count>
  <class_count>2</class_count>
  <class_labels type_id="opencv-matrix">
    <rows>1</rows>
    <cols>2</cols>
    <dt>i</dt>
    <data>
      -1 1</data></class_labels>
  <sv_total>1</sv_total>
  <support_vectors>
    <_>
      -4.03317586e-002 4.55663679e-003 -3.25101316e-002 -8.37094802e-003
      -1.54140919e-001 1.30832626e-003 -1.79802030e-002 4.28443849e-002
      7.02696666e-002 -1.20663559e-002 2.46543791e-002 4.20976579e-002
      -4.63277698e-002 3.52030364e-003 4.39957483e-003 9.47040319e-003
      4.17776108e-002 1.66702464e-001 -3.60508561e-002 -2.43537854e-002
      -9.57073793e-002 1.82670597e-002 4.84805517e-002 -3.16872522e-002
      6.05849922e-002 -8.54337141e-002 -3.69172171e-002 9.71513614e-002
      4.57707755e-002 -1.45470649e-001 1.28224446e-002 6.14302745e-003
      -3.24402861e-002 3.45988311e-002 6.17135204e-002 3.19797248e-002
      -5.25638610e-002 1.88523298e-003 -1.93398938e-001 8.36886391e-002
      -1.12159513e-001 1.40312212e-002 -1.53066767e-002 -1.99791584e-002
      5.38480817e-004 -7.73087144e-003 -1.40318377e-002 7.32069612e-002
      1.62365299e-003 2.50397231e-002 -6.51741847e-002 -4.11975160e-002
      -7.92694762e-002 1.06749876e-005 2.21519619e-002 3.51918526e-002
      7.17001408e-002 -1.16907343e-001 4.44258191e-002 1.95789903e-001
      -4.15185117e-004 1.96741316e-002 -1.45533867e-002 -3.05183046e-002
      5.73047772e-002 1.32124439e-001 -3.02806124e-002 1.18098212e-002
      -7.53101408e-002 -1.35516629e-001 1.43606783e-004 3.91240790e-002
      1.27776340e-001 9.38105863e-003 -3.37970369e-002 1.77244395e-001
      -1.13672890e-001 4.68190536e-002 -2.30605714e-002 -9.09035802e-002
      8.93753581e-003 -1.11389019e-001 -1.02482505e-001 1.03485160e-001
      -1.25110606e-002 -1.15080103e-002 -1.05432712e-001
      -1.26005560e-001 1.20310523e-001 -6.69817999e-002 3.63145508e-002
      3.59407663e-002 1.03323661e-001 -1.01852708e-001 -1.44091368e-001
      -1.05581887e-001 -2.74263695e-002 1.06870815e-001 4.07392867e-002
      3.47818658e-002 -2.42239833e-001 7.02852160e-002 6.04321016e-003
      8.15840531e-003 7.34911487e-002 1.27648434e-003 -9.85566229e-002
      -7.07847551e-002 1.68316424e-001 -5.23833791e-003 -2.52929538e-001
      -5.21515235e-002 -2.77884286e-002 -1.16679542e-001
      -9.78230983e-002 -1.41012952e-001 -1.47236764e-001 1.48074672e-001
      1.43466759e-002 -8.93676803e-002 6.09051995e-003 2.23452016e-003
      -1.74727306e-001 5.09125702e-002 -8.05962365e-003 3.56043987e-002
      -1.57414954e-002 1.96896140e-002 1.58735961e-002 3.34526300e-002
      -9.04788375e-002 1.84733048e-002 -7.66863152e-002 -4.42049056e-002
      8.06600749e-002 6.43690256e-003 6.27012327e-002 8.70365649e-002
      5.80612104e-003 -3.29709724e-002 -8.42960179e-002 2.26461887e-001
      -1.40635565e-001 -3.12234443e-002 -2.16286257e-002 3.92002845e-003
      7.12765455e-002 9.85138267e-002 7.59752318e-002 7.85004199e-002
      -1.28278900e-002 9.05987322e-002 7.52103254e-002 1.89422220e-002
      9.49982181e-002 -4.95256204e-003 1.07956842e-001 9.87321883e-002
      3.38634625e-002 -3.26681994e-002 2.70968787e-002 6.39189109e-002
      -8.39882120e-002 9.12945122e-002 -4.10494506e-002 -9.67512280e-002
      5.12615964e-002 -6.98458999e-002 -3.11376574e-003 8.47932771e-002
      2.29109954e-002 -1.71310417e-002 2.16880497e-002 -9.20377225e-002
      -3.82087603e-002 -2.01265886e-001 -2.19341274e-003
      -3.51826027e-002 2.21211210e-001 9.52556878e-002 3.76080126e-002
      6.98913708e-002 -6.94066584e-002 9.52059999e-002 9.01652128e-002
      -1.02337837e-001 -1.82458982e-002 1.61633536e-001 1.13286734e-001
      3.68575775e-003 -8.44996870e-002 1.18256569e-001 -2.62337830e-002
      3.27945016e-002 1.13293715e-002 1.26786055e-002 7.92503506e-002
      -1.09733172e-001 -9.00996663e-003 4.87701269e-003 5.31206764e-002
      1.59716848e-002 1.18034229e-001 -6.12768903e-002 3.75525397e-003
      -6.30792528e-002 -8.75059515e-002 5.09259179e-002 -4.98289801e-002
      -5.36272936e-002 4.44928706e-002 1.28943786e-001 -3.78210074e-003
      1.43953606e-001 1.30486144e-002 5.29526966e-003 3.42787802e-001
      -3.09513360e-002 6.59255981e-002 -1.07228294e-001 1.94795802e-001
      5.68977147e-002 -6.24047183e-002 5.00230268e-002 -4.96794507e-002
      9.36322752e-003 -4.14646864e-002 -3.41943875e-002 -6.66523278e-002
      -2.23944094e-002 9.00725927e-003 -7.16604143e-002 -1.21245213e-001
      -1.22593574e-001 -9.15600657e-002 5.86704426e-002 -9.08945203e-002
      -1.92055926e-002 -2.54826367e-001 -3.26852910e-002 8.78871325e-003
      2.33362243e-002 -1.30559113e-002 1.32830486e-001 -9.03582796e-002
      -1.37370571e-001 8.09490308e-002 1.17344229e-004 1.48756290e-002
      4.61945916e-003 -2.48951893e-002 6.51920587e-002 -1.42158624e-002
      8.32410753e-002 3.93641973e-003 1.19171299e-001</_></support_vectors>
  <decision_functions>
    <_>
      <sv_count>1</sv_count>
      <rho>1.4353538608437134e+001</rho>
      <alpha>
        1.</alpha>
      <index>
        0</index></_></decision_functions></my_svm>
</opencv_storage>
