<?xml version="1.0"?>
<opencv_storage>
<my_svm type_id="opencv-ml-svm">
  <svm_type>C_SVC</svm_type>
  <kernel><type>LINEAR</type></kernel>
  <C>9.9500000000000000e-001</C>
  <term_criteria><epsilon>1.0000000133514320e-010</epsilon>
    <iterations>2147483647</iterations></term_criteria>
  <var_all>256</var_all>
  <var_count>256</var_count>
  <class_count>2</class_count>
  <class_labels type_id="opencv-matrix">
    <rows>1</rows>
    <cols>2</cols>
    <dt>i</dt>
    <data>
      -1 1</data></class_labels>
  <sv_total>1</sv_total>
  <support_vectors>
    <_>
      2.85740197e-003 3.89628597e-002 -4.70458604e-002 -4.37974297e-002
      -4.49254625e-002 5.45074642e-002 -4.71232124e-002 7.25770816e-002
      7.19778389e-002 -1.36106223e-001 6.47655176e-003 1.53112888e-001
      -4.86680306e-002 2.59862300e-002 5.43521792e-002 2.21772529e-002
      7.72590414e-002 8.19593295e-002 6.57607391e-002 7.67406970e-002
      -4.66478476e-003 -1.68464735e-001 7.10554644e-002 -1.21030241e-001
      3.23862620e-002 -4.27370742e-002 -2.05652695e-002 1.13718500e-002
      3.15783061e-002 -2.11646006e-001 3.31978500e-002 1.21811163e-002
      3.95376794e-003 1.21811397e-001 1.77569687e-001 1.74583048e-001
      1.22657292e-001 6.76617920e-002 -2.27735952e-001 7.95312449e-002
      -2.65832484e-001 -1.02292977e-001 5.28743193e-002 -1.30837098e-001
      2.15588525e-001 -1.54845133e-001 -2.12942343e-002 5.17401062e-002
      -1.27080232e-002 5.65442108e-002 8.41978490e-002 -8.12005922e-002
      -7.77934864e-002 -4.46120277e-002 5.24609722e-002 1.58047870e-001
      1.12789549e-001 -2.49400273e-001 1.85732335e-001 2.89729327e-001
      2.38001924e-002 -8.18776712e-003 -1.83138065e-002 -3.57443318e-002
      3.42652090e-002 1.82229146e-001 -1.52417228e-001 1.55365452e-001
      -9.39654484e-002 -4.16786522e-002 -1.57489434e-001 5.62851951e-002
      4.32937816e-002 -1.86515823e-002 5.40249161e-002 9.86653939e-002
      -1.68125585e-001 5.85585386e-002 -3.39522250e-002 -8.63967612e-002
      -6.50196224e-002 -2.05695584e-001 -8.51075873e-002 1.93438619e-001
      -1.53590187e-001 -5.91990203e-002 -1.53170928e-001
      -3.63183022e-001 9.34354737e-002 -1.88861698e-001 8.87777358e-002
      2.30039656e-003 1.16263606e-001 -9.66968685e-002 -1.84746400e-001
      -2.72009730e-001 -5.08516952e-002 1.29972091e-002 1.77635595e-001
      2.18325276e-002 -2.78066576e-001 9.11347866e-002 8.01225528e-002
      6.42104819e-002 2.18632922e-001 1.90689359e-002 -1.39614537e-001
      -6.95948005e-002 1.79149434e-001 -8.22727941e-003 -3.44295174e-001
      5.25477789e-002 5.83340414e-004 2.04869118e-002 -1.10813990e-001
      -2.01001838e-001 -1.67381108e-001 1.11343786e-001 -7.09232762e-002
      -1.32336378e-001 2.77697090e-002 -4.54439633e-002 -2.29363635e-001
      9.67692956e-002 -1.86936427e-002 1.79858431e-002 -1.57087464e-002
      8.83991420e-002 9.17065423e-003 2.81924885e-002 -1.97120875e-001
      2.22654082e-002 -1.23753190e-001 1.33545324e-002 8.49314258e-002
      1.80439875e-002 -1.11500854e-002 8.20574984e-002 8.01123213e-003
      -8.82275105e-002 -1.31802231e-001 1.97587535e-001 -1.77713796e-001
      -7.24959979e-003 2.57605705e-002 -1.35774672e-001 1.11421630e-001
      1.94067493e-001 -2.73197833e-002 -3.67007218e-002 -1.45147398e-001
      2.02181548e-001 8.24453980e-002 2.09594592e-002 2.94722974e-001
      -5.90884089e-002 2.05171809e-001 2.66125381e-001 5.52680492e-002
      -6.05610795e-002 2.91210651e-001 5.71809560e-002 -1.51010022e-001
      1.48411393e-002 1.75097827e-002 -1.15990654e-001 6.23120181e-002
      -1.01097561e-001 -3.84458676e-002 1.94962353e-001 -2.16694758e-003
      -9.63856559e-003 8.25796369e-003 -1.12597123e-002 -1.86346292e-001
      -2.29411185e-001 4.19220477e-002 5.98782226e-002 3.20298553e-001
      1.57652237e-002 1.54338375e-001 8.18701237e-002 -4.18342054e-002
      1.70081154e-001 -2.57603731e-002 -9.43881646e-002 -1.15734795e-002
      5.41978106e-002 2.43146017e-001 -1.97430402e-002 7.23122153e-004
      1.02225915e-001 -3.95117514e-002 1.23531325e-002 1.09543651e-001
      2.70798951e-002 1.39249623e-001 -1.06371485e-001 -1.71097759e-002
      -3.49699025e-004 1.71002731e-001 6.76675588e-002 6.17132708e-003
      -7.49500468e-002 -5.80010004e-002 -1.96537837e-001
      -1.22938327e-001 4.76313457e-002 -8.49752799e-002 2.18589660e-002
      4.26817201e-002 1.00668043e-001 9.19411331e-002 2.20305219e-001
      5.98154850e-002 3.14310454e-002 3.49375993e-001 4.87689748e-002
      3.27368118e-002 -1.03981167e-001 2.56106406e-001 9.52677354e-002
      -9.59724560e-002 5.12956530e-002 -4.74682748e-002 1.95931233e-002
      -4.67359126e-002 2.25913282e-002 -2.02973068e-001 -2.15684548e-001
      -8.67161080e-002 -2.70174704e-002 -1.41036794e-001
      -1.95421487e-001 -1.23816922e-001 -2.27241255e-002
      -1.84099749e-001 -4.86339070e-002 -2.97872633e-001
      -2.19320096e-002 2.64168680e-002 2.63412222e-002 3.29312943e-002
      1.43640682e-001 -3.11889321e-001 -1.96196228e-001 1.91103578e-001
      4.13028002e-002 1.36634270e-002 -4.18934897e-002 -1.54403038e-002
      8.82729515e-002 4.08622716e-003 1.17455617e-001 2.05234764e-003
      1.88183337e-001</_></support_vectors>
  <decision_functions>
    <_>
      <sv_count>1</sv_count>
      <rho>3.5762661682927899e+001</rho>
      <alpha>
        1.</alpha>
      <index>
        0</index></_></decision_functions></my_svm>
</opencv_storage>
