<?xml version="1.0"?>
<opencv_storage>
<my_svm type_id="opencv-ml-svm">
  <svm_type>C_SVC</svm_type>
  <kernel><type>LINEAR</type></kernel>
  <C>9.0000000000000002e-001</C>
  <term_criteria><epsilon>1.0000000133514320e-010</epsilon>
    <iterations>2147483647</iterations></term_criteria>
  <var_all>256</var_all>
  <var_count>256</var_count>
  <class_count>2</class_count>
  <class_labels type_id="opencv-matrix">
    <rows>1</rows>
    <cols>2</cols>
    <dt>i</dt>
    <data>
      -1 1</data></class_labels>
  <sv_total>1</sv_total>
  <support_vectors>
    <_>
      -4.29191850e-002 1.52299006e-003 1.19350124e-002 -3.40742953e-002
      7.10289320e-003 3.38409841e-002 -3.42499167e-002 3.58996280e-002
      -3.92185748e-002 4.79677226e-003 1.03728529e-002 3.46942209e-002
      5.85627649e-003 8.98559019e-002 1.47013534e-002 1.30241718e-002
      8.06369111e-002 2.76716966e-002 -2.01994441e-002 4.54941578e-002
      -1.10933390e-002 1.08324306e-003 1.47855573e-003 -4.75853048e-002
      8.63951258e-003 -7.18077198e-002 -4.93154116e-003 -5.82852168e-003
      1.95538364e-002 -3.64470109e-002 1.72599368e-002 -1.61491521e-002
      -4.67535257e-002 -7.92047754e-003 7.93126691e-003 -4.20753397e-002
      -5.23003079e-002 -4.22984129e-003 1.44335069e-002 6.01433143e-002
      -2.67755357e-003 -2.49063200e-003 -8.80346075e-003
      -5.66351600e-003 2.77178008e-002 -2.30899826e-003 -3.03041022e-002
      -1.09962717e-001 1.10771237e-002 1.53219253e-002 3.21810693e-002
      3.13460678e-002 -4.00331952e-002 2.26807818e-002 2.59222109e-002
      -5.60068246e-003 8.23113546e-002 -4.82530668e-002 -1.25620561e-003
      7.33641256e-003 -5.50474133e-003 7.06988871e-002 -1.26991160e-002
      -5.87862208e-002 1.01138214e-002 3.36229503e-002 -4.67874035e-002
      1.16913266e-001 3.48699070e-003 -4.74689230e-002 -4.75233309e-002
      -2.76340153e-002 4.99014407e-002 -1.23244291e-002 -4.98271324e-002
      1.02735702e-002 -5.98108992e-002 1.33720562e-002 -2.57034861e-002
      -8.90638307e-002 -4.02031802e-002 -6.17329925e-002
      -2.54201461e-002 1.62695870e-002 2.36222818e-002 -1.06481528e-002
      -4.33487445e-002 -1.50471739e-002 2.92325858e-002 -2.81142071e-002
      2.97303475e-003 2.33021155e-002 -2.02381378e-003 -2.67436332e-003
      -7.95395374e-002 -2.00118721e-002 1.60423853e-003 9.86143649e-002
      3.15975286e-002 -2.53341347e-002 1.99248232e-002 1.38812251e-002
      1.27218440e-002 -1.34245185e-002 2.59835590e-002 3.41771990e-002
      -1.49149010e-002 4.58234595e-003 2.75146849e-002 5.40125631e-002
      -8.73742998e-002 -3.41185108e-002 -3.09005789e-002
      -2.61225104e-002 -7.57110640e-002 -1.42731257e-002
      -7.70566240e-002 1.96587257e-002 -5.46093397e-002 8.15559924e-003
      5.44798793e-003 -8.85229371e-003 -1.07646935e-001 5.36495931e-002
      -1.98274683e-002 -1.46650895e-002 1.53648825e-002 -8.71200021e-003
      -5.45686064e-003 5.20782359e-002 2.77844686e-002 6.28716648e-002
      3.43414466e-003 1.12583963e-002 4.26217169e-002 2.82727741e-003
      5.33855660e-003 2.94412337e-002 3.45555134e-002 2.20848918e-002
      -2.06476562e-002 9.50922444e-002 -1.12618215e-001 -1.07030524e-002
      -1.06617017e-002 -5.53424470e-003 1.50941629e-002 5.12561239e-002
      -5.37999021e-003 9.00751445e-003 2.75229886e-002 1.60326972e-003
      2.21913345e-002 8.37924331e-002 3.80218551e-002 -2.43063010e-002
      3.47745568e-002 2.24184804e-002 -4.09822129e-002 -2.84248795e-002
      -7.25060701e-002 5.11776190e-003 -1.21142087e-003 1.09124118e-002
      2.86268033e-002 -2.90528163e-002 -1.19137438e-002 -9.17298626e-003
      -1.90438237e-004 9.46474168e-003 1.96261965e-002 -2.83703264e-002
      1.85918494e-003 -1.80059485e-003 -1.51074110e-002 -7.12582618e-002
      -3.62138264e-002 3.59271057e-002 1.81425717e-002 1.27251744e-002
      1.82550936e-003 -1.47296079e-002 -5.15089044e-003 4.80896384e-002
      1.23813897e-002 2.37625856e-002 1.24844990e-003 1.03389159e-001
      3.98830138e-002 4.67685051e-003 3.05779022e-003 7.75948837e-002
      -1.88920349e-002 1.19472183e-002 -1.43305389e-002 1.51677094e-002
      2.88435090e-002 -4.40081488e-003 -2.35416610e-002 -2.54019201e-002
      4.03684638e-002 -2.10239105e-002 3.17709967e-002 -1.00393362e-001
      2.81633679e-002 2.25017983e-002 -7.14117736e-002 5.19447029e-002
      -3.87392603e-002 1.25732394e-002 -8.52819625e-003 -3.87937948e-002
      -1.98031384e-002 1.72892287e-002 2.07608864e-002 -2.15640124e-002
      8.54808465e-002 1.09794037e-002 1.06845675e-002 -2.45006867e-002
      6.45936579e-002 3.75292338e-002 -5.15548773e-002 1.02166943e-001
      -5.91618605e-002 7.55615020e-003 -2.48661991e-002 -2.04835888e-002
      1.06204953e-002 4.22870740e-002 -2.96907444e-002 -7.34335557e-002
      -1.73780508e-002 -9.56559256e-002 -7.92511346e-005 1.70968585e-002
      -5.00627235e-003 4.91874525e-003 -1.65782943e-001 -3.36533189e-002
      1.11511126e-002 3.07170972e-002 -8.67648423e-003 8.00242722e-002
      1.69580989e-002 -3.10569629e-002 4.22443785e-002 2.00537667e-002
      2.56453380e-002 7.52442330e-003 -5.85405603e-002 3.39583419e-002
      -1.50100794e-002 4.44501564e-002 -2.76283966e-003 1.10239014e-001</_></support_vectors>
  <decision_functions>
    <_>
      <sv_count>1</sv_count>
      <rho>1.3215987326521223e+001</rho>
      <alpha>
        1.</alpha>
      <index>
        0</index></_></decision_functions></my_svm>
</opencv_storage>
