<?xml version="1.0"?>
<opencv_storage>
<my_svm type_id="opencv-ml-svm">
  <svm_type>C_SVC</svm_type>
  <kernel><type>LINEAR</type></kernel>
  <C>9.0000000000000002e-001</C>
  <term_criteria><epsilon>1.0000000133514320e-010</epsilon>
    <iterations>2147483647</iterations></term_criteria>
  <var_all>256</var_all>
  <var_count>256</var_count>
  <class_count>2</class_count>
  <class_labels type_id="opencv-matrix">
    <rows>1</rows>
    <cols>2</cols>
    <dt>i</dt>
    <data>
      -1 1</data></class_labels>
  <sv_total>1</sv_total>
  <support_vectors>
    <_>
      -4.07620519e-002 -6.54343702e-003 -1.72477588e-002
      -3.21239792e-002 -2.21474450e-002 3.59335244e-002 -3.35996896e-002
      2.33277641e-002 -6.78861327e-003 -1.18119605e-002 -6.18217746e-004
      2.14096550e-002 -2.16761744e-003 8.99059847e-002 1.02549857e-002
      1.30575597e-002 7.12068155e-002 3.22672799e-002 -1.77941862e-002
      6.01237454e-002 -1.71682835e-002 -1.32280262e-002 1.98663678e-003
      -5.23100458e-002 -1.90113857e-002 -5.66522293e-002
      -1.86621789e-002 1.64851937e-002 1.80578977e-002 -2.91466694e-002
      6.61484106e-003 -6.32745633e-003 -3.44420746e-002 8.29467457e-003
      9.29967966e-003 -4.60660234e-002 -2.93867867e-002 4.14410792e-003
      -8.39510188e-003 3.46137770e-002 -1.44854728e-002 2.13935133e-002
      -3.68566788e-003 1.55885518e-003 1.76185463e-002 7.85754644e-004
      -2.94013079e-002 -8.39558542e-002 1.99323464e-002 4.71872324e-003
      3.21857333e-002 2.47574542e-002 -2.68161949e-002 1.98360141e-002
      2.93783527e-002 -7.69728236e-003 8.24152976e-002 -3.45616899e-002
      -1.29432883e-002 -3.38862091e-003 -4.46157064e-003 8.49173144e-002
      5.54358773e-003 -6.59810901e-002 7.59351021e-003 3.14789228e-002
      -3.51214558e-002 8.26019123e-002 4.54730442e-004 -5.21742702e-002
      -5.61506711e-002 -3.54996286e-002 4.43799943e-002 -1.99638158e-002
      -4.88888398e-002 7.23874022e-004 -5.56074344e-002 1.87500399e-002
      -2.71448325e-002 -7.14659765e-002 -8.15881882e-003
      -4.87369820e-002 -1.21533945e-002 1.31556075e-002 2.70532016e-002
      -1.00874910e-002 -4.35385741e-002 -8.57365504e-003 2.78050415e-002
      -1.58391371e-002 2.03289017e-002 4.47977691e-005 -3.29588354e-002
      8.78577959e-003 -8.60179663e-002 -1.41858784e-002 -5.20585291e-003
      9.36061442e-002 5.35507360e-003 -3.69635336e-002 3.98997106e-002
      1.82010327e-002 7.20984477e-004 -1.78181510e-002 2.13431604e-002
      2.46282797e-002 -2.05705334e-002 3.30284308e-003 5.68002537e-002
      5.53999059e-002 -9.49943066e-002 -5.76810986e-002 -1.39206070e-002
      -2.73924042e-002 -6.14437237e-002 -1.26733994e-002
      -9.11889970e-002 6.45904755e-003 -4.01260853e-002 -9.20827442e-004
      6.91094622e-003 -3.94308055e-003 -7.78374597e-002 5.32856286e-002
      -2.13186909e-002 -1.24602951e-003 -1.73623534e-003
      -2.78578475e-002 -4.17811703e-003 5.52709736e-002 2.22781487e-002
      5.75459935e-002 1.17014060e-002 4.71026860e-002 4.34881523e-002
      -1.20372511e-003 -1.23607068e-004 3.38786980e-003 3.35794613e-002
      2.01958716e-002 -3.49523276e-002 8.12650248e-002 -1.02690481e-001
      -1.44082922e-002 -1.08748442e-002 -4.72280569e-003 8.72043986e-003
      4.54164296e-002 -8.43560789e-003 7.44695030e-003 1.15996208e-002
      -7.47484528e-003 3.77665237e-002 6.98036030e-002 3.89431082e-002
      -6.77264668e-003 1.11524910e-002 -1.94009393e-002 -2.23770421e-002
      -2.49810759e-002 -5.75666241e-002 -4.61950578e-004
      -4.73431498e-003 5.54819498e-003 2.54672058e-002 -2.89439242e-002
      -7.91559368e-003 -8.24929122e-003 9.40221420e-004 8.67262948e-003
      1.94278099e-002 -1.87519137e-002 7.28642195e-003 -3.05983820e-003
      -6.08744752e-003 -9.19453353e-002 -1.49586592e-002 3.34413424e-002
      2.54948977e-002 1.65162347e-002 -1.96140260e-003 -1.10507123e-002
      5.29209443e-004 5.06834351e-002 2.38785669e-002 2.44122893e-002
      9.98124480e-003 8.76749903e-002 5.04330546e-002 8.65952484e-003
      3.84315941e-003 8.14455375e-002 -2.31653098e-002 8.95035826e-003
      -7.50534330e-003 1.71296485e-002 5.35730235e-002 -2.17709802e-002
      -2.65725330e-002 -3.47050428e-002 3.24895605e-002 -3.26347500e-002
      3.13051566e-002 -8.39330181e-002 3.11485548e-002 1.41799431e-002
      -6.45333454e-002 5.98826706e-002 -2.64564138e-002 1.30548161e-002
      -8.67284462e-003 -2.91968659e-002 -1.49976090e-002 2.28466820e-002
      9.65823699e-003 -1.77875049e-002 7.33752251e-002 6.95001148e-003
      8.92592035e-003 -2.89198756e-003 5.98973185e-002 5.38998358e-002
      -2.83522196e-002 9.70727429e-002 -5.90941533e-002 6.40580198e-003
      -2.13966668e-002 -2.18248088e-002 1.75504386e-002 3.70845906e-002
      -2.92959195e-002 -4.62459140e-002 -1.49354823e-002
      -1.02681622e-001 4.60166018e-003 2.77213845e-002 -1.45435752e-002
      2.55505345e-003 -1.56907275e-001 -2.33104415e-002 7.32112722e-003
      3.46746072e-002 -2.92920246e-004 8.24040994e-002 -5.70994336e-003
      -9.03438870e-003 6.08636923e-002 5.39708277e-003 1.34330494e-002
      9.42711905e-003 -6.10097609e-002 2.89628021e-002 -1.99237298e-002
      4.96379547e-002 -1.00456886e-002 1.00121357e-001</_></support_vectors>
  <decision_functions>
    <_>
      <sv_count>1</sv_count>
      <rho>1.0922256777334374e+001</rho>
      <alpha>
        1.</alpha>
      <index>
        0</index></_></decision_functions></my_svm>
</opencv_storage>
