<?xml version="1.0"?>
<opencv_storage>
<my_svm type_id="opencv-ml-svm">
  <svm_type>NU_SVC</svm_type>
  <kernel><type>LINEAR</type></kernel>
  <nu>1.4999999999999999e-001</nu>
  <term_criteria><epsilon>1.0000000116860974e-007</epsilon>
    <iterations>2147483647</iterations></term_criteria>
  <var_all>100</var_all>
  <var_count>100</var_count>
  <class_count>2</class_count>
  <class_labels type_id="opencv-matrix">
    <rows>1</rows>
    <cols>2</cols>
    <dt>i</dt>
    <data>
      -1 1</data></class_labels>
  <sv_total>1</sv_total>
  <support_vectors>
    <_>
      -1.37530705e-002 1.32949827e-002 1.26889460e-002 1.63076837e-002
      -1.42560005e-002 -8.06053809e-004 1.11650093e-003 -3.80750149e-002
      -5.12007102e-002 2.41214912e-002 -1.99801568e-003 1.29726017e-003
      -1.76863726e-002 -3.54812667e-002 -2.75050942e-002
      -4.32628170e-002 9.05254111e-002 -2.05271412e-003 2.27701534e-002
      -3.39829386e-003 1.12106353e-002 -5.63323610e-002 -3.72163840e-002
      -7.90628940e-002 -3.41900736e-002 3.53671722e-002 2.21489333e-002
      5.45507260e-002 -1.75087573e-003 -3.95229608e-002 -2.59921364e-002
      3.18835713e-002 -7.37040937e-002 3.22969677e-003 2.34053154e-002
      -4.70592380e-002 -5.67458272e-002 3.29543129e-002 1.49471745e-001
      7.68049881e-002 -9.67653617e-002 1.08789288e-001 -3.28740552e-002
      -2.61282511e-002 -1.07188094e-002 -1.12481881e-002
      -1.15352171e-002 5.76214679e-002 -3.70891877e-002 -1.34090371e-002
      -2.81798821e-002 2.74659274e-003 3.26114483e-002 2.08212212e-002
      -1.07807163e-002 -2.78908818e-004 -9.18511897e-002
      -1.31389916e-001 1.27472773e-001 1.00034416e-001 -1.63388327e-002
      5.71604148e-002 -6.76749423e-002 2.30380177e-001 -5.72685227e-002
      -2.51650717e-002 1.36839285e-001 2.44435063e-003 -5.75151853e-002
      -8.21585655e-002 9.71116573e-002 3.81464744e-003 2.04911418e-002
      3.82023640e-002 -3.78849320e-002 8.63551050e-002 -4.04788926e-002
      8.50823075e-002 -2.90930599e-001 -1.27429422e-002 3.97105142e-002
      -1.52748195e-003 -2.49937512e-002 -7.36969113e-002 5.70293702e-002
      5.07874265e-002 1.84639022e-001 1.06976241e-001 -2.00430471e-002
      -1.42124901e-002 -2.78648008e-002 2.97084711e-002 2.52135489e-002
      5.77342845e-002 -9.46953613e-003 2.12918311e-001 2.08108462e-002
      3.56620364e-002 -8.83647278e-002 2.63011400e-002</_></support_vectors>
  <decision_functions>
    <_>
      <sv_count>1</sv_count>
      <rho>2.4763223247324603e+001</rho>
      <alpha>
        1.</alpha>
      <index>
        0</index></_></decision_functions></my_svm>
</opencv_storage>
