<?xml version="1.0"?>
<opencv_storage>
<my_svm type_id="opencv-ml-svm">
  <svm_type>C_SVC</svm_type>
  <kernel><type>LINEAR</type></kernel>
  <C>1.</C>
  <term_criteria><epsilon>1.1920928955078125e-007</epsilon>
    <iterations>2147483647</iterations></term_criteria>
  <var_all>16</var_all>
  <var_count>16</var_count>
  <class_count>2</class_count>
  <class_labels type_id="opencv-matrix">
    <rows>1</rows>
    <cols>2</cols>
    <dt>i</dt>
    <data>
      -1 1</data></class_labels>
  <sv_total>1</sv_total>
  <support_vectors>
    <_>
      2.48502698e-002 3.32811996e-002 3.91165130e-002 3.61275934e-002
      1.64141245e-002 -1.90209821e-002 2.15737671e-001 2.23750919e-001
      -2.28196755e-002 2.09098771e-001 1.34991705e-001 -2.30005221e-003
      8.04794058e-002 -1.02671064e-001 -2.69515403e-002 -5.86445369e-002</_></support_vectors>
  <decision_functions>
    <_>
      <sv_count>1</sv_count>
      <rho>3.3932114333956385e+001</rho>
      <alpha>
        1.</alpha>
      <index>
        0</index></_></decision_functions></my_svm>
</opencv_storage>
