<?xml version="1.0"?>
<opencv_storage>
<my_svm type_id="opencv-ml-svm">
  <svm_type>C_SVC</svm_type>
  <kernel><type>LINEAR</type></kernel>
  <C>9.0000000000000002e-001</C>
  <term_criteria><epsilon>1.0000000133514320e-010</epsilon>
    <iterations>2147483647</iterations></term_criteria>
  <var_all>256</var_all>
  <var_count>256</var_count>
  <class_count>2</class_count>
  <class_labels type_id="opencv-matrix">
    <rows>1</rows>
    <cols>2</cols>
    <dt>i</dt>
    <data>
      -1 1</data></class_labels>
  <sv_total>1</sv_total>
  <support_vectors>
    <_>
      -3.48752104e-002 -1.61167630e-003 -8.00092518e-003 2.55797198e-003
      -1.18857799e-002 2.68767476e-002 -1.95468739e-002 4.51845676e-003
      -2.58472506e-002 -3.59875057e-003 -4.73365039e-002
      -8.37506377e-004 -3.18484311e-003 2.79946644e-002 -2.72556078e-002
      2.08787993e-002 9.94529855e-003 1.45278713e-002 -2.94324709e-003
      1.72154009e-002 2.14721565e-003 3.08317423e-004 -1.63421854e-002
      -3.29663232e-002 1.08301826e-003 -9.28602461e-003 -3.42921680e-003
      8.58252030e-003 2.44917143e-002 -2.60355324e-002 1.31165534e-002
      -1.79461595e-002 -4.62417416e-002 1.05492596e-003 7.11998437e-003
      7.92861544e-003 -1.40955551e-002 3.12103610e-003 -5.74177876e-003
      2.19773091e-002 1.05246215e-003 -2.19145161e-003 4.20638453e-003
      -5.51362871e-004 1.61442347e-002 -9.08542052e-003 -6.88428292e-003
      -1.09297773e-002 -2.42428901e-003 -1.08930971e-002
      -8.84089805e-003 1.59421694e-002 -3.52634583e-003 -8.68273247e-003
      4.47810814e-003 7.33447680e-003 2.22673872e-003 1.08553525e-002
      -7.08470587e-003 -1.79273207e-002 4.97020688e-003 1.12216258e-002
      1.01382588e-003 -1.00250775e-002 2.12373920e-002 1.06899813e-002
      -3.45973508e-003 1.56016238e-002 -4.06246108e-004 -5.23280539e-003
      -1.46625880e-002 2.33233673e-003 1.89638939e-002 -4.35072556e-003
      -6.87110471e-003 -4.09970898e-003 7.53778452e-003 2.34044646e-003
      -3.17700813e-003 -3.22564207e-002 -1.67589337e-002
      -1.70263369e-002 1.15241704e-003 1.58286258e-003 -1.24756331e-002
      -4.34724707e-003 -8.57464038e-003 -6.46269880e-004 3.09594702e-002
      6.48022443e-003 -1.15487305e-003 -6.66609500e-003 -1.62166003e-002
      -1.43633829e-002 -7.13785738e-003 -2.63922904e-002
      -2.29129419e-002 1.74486171e-002 2.36192043e-003 -9.58762132e-004
      1.39919540e-003 1.29034894e-003 1.13489395e-002 -1.78203993e-002
      1.38004459e-002 -3.17912642e-003 -3.80116561e-003 3.26300762e-003
      -9.59323067e-003 1.61122065e-003 -1.94872338e-002 -1.89972576e-002
      1.31314388e-002 -3.73775028e-002 4.99915471e-003 -9.87645239e-003
      -1.15259932e-002 2.19691335e-003 -9.23970807e-003 2.51086876e-002
      1.95565308e-003 1.81530304e-002 -2.98640504e-002 -5.45054814e-003
      2.61585526e-002 -8.47250782e-003 7.51750451e-003 -1.65698752e-002
      -1.48351276e-002 1.32905198e-002 2.92648259e-003 2.78606843e-002
      6.90324837e-003 1.80577934e-002 -7.41096260e-003 -3.11580859e-003
      -1.51579427e-002 -4.35702881e-004 9.68403090e-003 1.16816889e-002
      -6.13006018e-003 1.13154100e-002 -5.92705235e-003 -3.39592830e-003
      8.05051066e-003 1.20603363e-003 1.24404347e-003 1.18536456e-002
      -6.55102683e-003 -1.13055557e-002 2.52878014e-003 5.10474015e-003
      3.72241833e-004 2.84866220e-003 2.28078174e-003 -1.40328659e-002
      1.69087369e-002 -4.68829600e-003 -2.49323733e-002 2.07994208e-002
      -1.17437849e-002 1.78586587e-003 1.07993819e-002 1.33720804e-002
      2.61990307e-003 -4.63872170e-003 -1.40561454e-003 4.81263595e-003
      -5.84810926e-003 9.24628461e-004 3.03690950e-003 3.45340511e-003
      -1.34992774e-003 -4.36182786e-003 -2.30163499e-003
      -1.79929193e-002 -1.40525196e-002 -6.54416624e-003 1.19531583e-002
      1.35929445e-002 -1.10811442e-002 -3.07288195e-004 1.29752047e-003
      -2.38073501e-003 1.02869037e-003 1.11770490e-002 -4.69514634e-003
      1.18868351e-002 1.18191876e-002 -1.66817531e-002 1.19470255e-002
      4.41338569e-002 7.23770866e-003 2.12095417e-002 -4.62091388e-003
      8.22880957e-003 1.79764684e-002 -1.55051146e-003 1.86408311e-002
      -1.81488451e-002 2.09379178e-002 -7.97575712e-003 1.77196832e-003
      -2.92644221e-002 4.71628131e-003 -4.84396238e-003 3.61533184e-003
      2.16521490e-002 -7.98692834e-003 4.67351032e-003 4.79072705e-003
      -7.42597040e-003 4.24047466e-003 -1.63469766e-003 1.11092697e-003
      -1.43394787e-002 2.00920664e-002 -7.27267424e-003 5.18785836e-003
      -1.20647550e-002 1.30981104e-002 1.89034976e-002 -1.10222818e-002
      2.36043688e-002 -6.16026968e-002 8.42497684e-003 2.38584518e-003
      -2.33435594e-002 1.22951600e-003 -1.56315730e-003 -1.02071613e-002
      -2.80269701e-003 8.71324539e-003 2.06350302e-003 -2.01254338e-003
      1.30817620e-002 -1.05920359e-002 1.51527273e-002 -6.28787130e-002
      -8.19109846e-003 6.74663298e-003 2.14362741e-002 -4.36155405e-003
      5.52956723e-002 -1.67095307e-002 -3.23744398e-003 2.14024317e-002
      4.01067734e-002 -3.90039105e-003 -3.49831837e-003 3.02532185e-002
      3.12163755e-002 5.63950416e-005 7.58751156e-003 -1.89704578e-002
      8.78702402e-002</_></support_vectors>
  <decision_functions>
    <_>
      <sv_count>1</sv_count>
      <rho>9.1158658020925678e+000</rho>
      <alpha>
        1.</alpha>
      <index>
        0</index></_></decision_functions></my_svm>
</opencv_storage>
