<?xml version="1.0"?>
<opencv_storage>
<my_svm type_id="opencv-ml-svm">
  <svm_type>C_SVC</svm_type>
  <kernel><type>RBF</type>
    <gamma>3.</gamma></kernel>
  <C>1.</C>
  <term_criteria><epsilon>1.1920928955078125e-007</epsilon>
    <iterations>2147483647</iterations></term_criteria>
  <var_all>8</var_all>
  <var_count>8</var_count>
  <class_count>2</class_count>
  <class_labels type_id="opencv-matrix">
    <rows>1</rows>
    <cols>2</cols>
    <dt>i</dt>
    <data>
      -1 1</data></class_labels>
  <sv_total>375</sv_total>
  <support_vectors>
    <_>
      19. 15. 63. 30. 29. 6. 42. 6.</_>
    <_>
      5. 19. 24. 1. 9. 14. 8. 8.</_>
    <_>
      12. 3. 9. 4. 14. 20. 1. 14.</_>
    <_>
      23. 12. 27. 19. 13. 10. 17. 38.</_>
    <_>
      33. 23. 24. 13. 24. 23. 20. 19.</_>
    <_>
      17. 14. 23. 3. 16. 16. 7. 15.</_>
    <_>
      19. 6. 30. 7. 19. 32. 18. 22.</_>
    <_>
      9. 19. 13. 3. 5. 12. 6. 11.</_>
    <_>
      5. 17. 14. 4. 8. 29. 7. 17.</_>
    <_>
      136. 3. 27. 9. 57. 6. 16. 2.</_>
    <_>
      59. 3. 1. 12. 34. 14. 7. 11.</_>
    <_>
      16. 9. 18. 12. 12. 22. 12. 28.</_>
    <_>
      30. 1. 3. 18. 23. 10. 4. 6.</_>
    <_>
      17. 7. 24. 6. 15. 14. 17. 21.</_>
    <_>
      15. 19. 22. 16. 21. 19. 17. 30.</_>
    <_>
      27. 21. 13. 4. 22. 11. 11. 12.</_>
    <_>
      10. 20. 6. 26. 20. 8. 18. 5.</_>
    <_>
      8. 8. 18. 13. 24. 10. 22. 21.</_>
    <_>
      14. 9. 7. 19. 28. 16. 13. 27.</_>
    <_>
      16. 12. 13. 11. 9. 9. 3. 13.</_>
    <_>
      9. 12. 142. 7. 6. 6. 16. 6.</_>
    <_>
      26. 10. 117. 11. 34. 11. 18. 8.</_>
    <_>
      12. 38. 16. 17. 10. 10. 10. 12.</_>
    <_>
      7. 3. 4. 53. 8. 7. 1. 4.</_>
    <_>
      14. 20. 22. 13. 22. 22. 16. 27.</_>
    <_>
      17. 30. 44. 21. 24. 4. 6. 41.</_>
    <_>
      14. 11. 7. 12. 10. 32. 4. 17.</_>
    <_>
      12. 19. 68. 12. 3. 13. 18. 25.</_>
    <_>
      33. 2. 11. 8. 25. 22. 34. 8.</_>
    <_>
      8. 57. 12. 42. 4. 13. 1. 62.</_>
    <_>
      29. 12. 29. 14. 23. 31. 15. 19.</_>
    <_>
      8. 15. 15. 2. 10. 37. 9. 9.</_>
    <_>
      15. 16. 16. 12. 17. 36. 11. 19.</_>
    <_>
      14. 7. 13. 11. 19. 30. 58. 22.</_>
    <_>
      15. 5. 12. 6. 13. 43. 30. 10.</_>
    <_>
      23. 11. 19. 23. 38. 17. 11. 22.</_>
    <_>
      7. 3. 8. 2. 8. 1. 2. 0.</_>
    <_>
      7. 28. 11. 6. 12. 30. 17. 11.</_>
    <_>
      25. 9. 2. 4. 18. 25. 2. 15.</_>
    <_>
      8. 22. 27. 12. 15. 11. 28. 8.</_>
    <_>
      16. 38. 26. 21. 9. 2. 23. 41.</_>
    <_>
      23. 8. 14. 2. 16. 17. 14. 12.</_>
    <_>
      9. 15. 5. 28. 17. 20. 17. 16.</_>
    <_>
      36. 13. 7. 15. 28. 19. 21. 2.</_>
    <_>
      1. 20. 29. 3. 3. 15. 9. 14.</_>
    <_>
      4. 7. 23. 7. 4. 33. 10. 5.</_>
    <_>
      10. 18. 10. 15. 14. 33. 50. 7.</_>
    <_>
      16. 23. 24. 19. 23. 14. 14. 15.</_>
    <_>
      31. 5. 3. 1. 18. 12. 15. 3.</_>
    <_>
      6. 38. 26. 13. 14. 3. 7. 36.</_>
    <_>
      20. 6. 2. 4. 13. 18. 4. 13.</_>
    <_>
      7. 76. 15. 35. 11. 2. 4. 28.</_>
    <_>
      14. 83. 14. 13. 10. 11. 6. 18.</_>
    <_>
      9. 3. 6. 8. 13. 30. 9. 12.</_>
    <_>
      14. 3. 20. 4. 7. 39. 18. 5.</_>
    <_>
      31. 16. 19. 15. 21. 26. 37. 7.</_>
    <_>
      7. 7. 11. 1. 5. 88. 35. 4.</_>
    <_>
      39. 22. 39. 15. 37. 8. 19. 29.</_>
    <_>
      18. 31. 28. 28. 26. 8. 17. 33.</_>
    <_>
      12. 49. 23. 13. 17. 11. 6. 21.</_>
    <_>
      19. 31. 26. 26. 20. 17. 15. 19.</_>
    <_>
      18. 22. 31. 26. 22. 13. 11. 27.</_>
    <_>
      18. 6. 10. 10. 21. 13. 8. 19.</_>
    <_>
      21. 7. 11. 13. 26. 28. 11. 10.</_>
    <_>
      18. 17. 74. 7. 14. 12. 26. 9.</_>
    <_>
      42. 12. 37. 26. 43. 10. 29. 7.</_>
    <_>
      20. 7. 13. 5. 15. 34. 27. 5.</_>
    <_>
      12. 34. 5. 48. 16. 10. 2. 8.</_>
    <_>
      21. 9. 19. 5. 8. 39. 35. 17.</_>
    <_>
      30. 4. 16. 6. 29. 17. 13. 20.</_>
    <_>
      14. 14. 15. 13. 13. 23. 30. 19.</_>
    <_>
      16. 39. 9. 38. 11. 20. 11. 23.</_>
    <_>
      10. 4. 15. 4. 18. 28. 15. 8.</_>
    <_>
      5. 1. 20. 3. 8. 21. 28. 3.</_>
    <_>
      15. 32. 19. 54. 11. 22. 11. 23.</_>
    <_>
      29. 23. 20. 9. 24. 13. 37. 29.</_>
    <_>
      32. 5. 25. 16. 24. 38. 22. 17.</_>
    <_>
      16. 21. 28. 14. 16. 31. 36. 13.</_>
    <_>
      68. 16. 21. 22. 40. 9. 23. 8.</_>
    <_>
      27. 12. 50. 15. 12. 3. 14. 2.</_>
    <_>
      28. 6. 21. 9. 24. 10. 15. 6.</_>
    <_>
      3. 13. 16. 9. 8. 15. 22. 7.</_>
    <_>
      12. 34. 9. 16. 7. 13. 6. 28.</_>
    <_>
      19. 17. 12. 26. 21. 11. 17. 17.</_>
    <_>
      32. 8. 4. 5. 32. 13. 23. 30.</_>
    <_>
      24. 11. 4. 17. 20. 6. 6. 25.</_>
    <_>
      2. 16. 27. 10. 4. 35. 10. 9.</_>
    <_>
      18. 6. 9. 15. 28. 43. 13. 8.</_>
    <_>
      8. 9. 21. 10. 14. 12. 15. 18.</_>
    <_>
      17. 9. 4. 23. 12. 9. 2. 5.</_>
    <_>
      21. 6. 19. 8. 19. 41. 30. 24.</_>
    <_>
      13. 3. 10. 9. 16. 34. 23. 25.</_>
    <_>
      5. 3. 9. 2. 4. 22. 7. 10.</_>
    <_>
      11. 10. 11. 7. 19. 45. 9. 16.</_>
    <_>
      32. 6. 16. 7. 15. 31. 10. 10.</_>
    <_>
      8. 6. 8. 3. 13. 5. 0. 3.</_>
    <_>
      14. 14. 23. 12. 15. 23. 22. 36.</_>
    <_>
      11. 4. 10. 14. 13. 70. 42. 6.</_>
    <_>
      23. 4. 28. 20. 14. 24. 17. 12.</_>
    <_>
      18. 13. 1. 6. 13. 25. 15. 11.</_>
    <_>
      42. 12. 15. 35. 40. 31. 20. 19.</_>
    <_>
      20. 3. 3. 7. 18. 26. 7. 3.</_>
    <_>
      13. 29. 32. 2. 11. 22. 27. 7.</_>
    <_>
      17. 30. 9. 25. 17. 31. 16. 9.</_>
    <_>
      10. 7. 16. 8. 13. 21. 6. 6.</_>
    <_>
      10. 0. 8. 1. 3. 67. 14. 4.</_>
    <_>
      58. 7. 16. 50. 53. 20. 20. 15.</_>
    <_>
      63. 11. 5. 16. 27. 13. 10. 5.</_>
    <_>
      74. 13. 34. 10. 31. 10. 15. 13.</_>
    <_>
      29. 25. 28. 29. 24. 10. 13. 13.</_>
    <_>
      22. 9. 38. 42. 26. 18. 5. 27.</_>
    <_>
      28. 25. 25. 20. 29. 33. 24. 9.</_>
    <_>
      77. 8. 24. 2. 62. 11. 12. 6.</_>
    <_>
      32. 17. 38. 11. 26. 14. 40. 6.</_>
    <_>
      16. 30. 37. 16. 25. 22. 27. 3.</_>
    <_>
      38. 3. 8. 20. 35. 20. 20. 5.</_>
    <_>
      17. 21. 23. 17. 18. 33. 16. 3.</_>
    <_>
      25. 19. 6. 20. 24. 30. 8. 3.</_>
    <_>
      29. 5. 14. 7. 30. 9. 8. 21.</_>
    <_>
      50. 3. 18. 22. 46. 9. 13. 3.</_>
    <_>
      31. 18. 23. 11. 21. 22. 21. 16.</_>
    <_>
      12. 7. 13. 17. 7. 42. 26. 12.</_>
    <_>
      31. 5. 16. 16. 33. 19. 19. 10.</_>
    <_>
      6. 17. 11. 5. 11. 27. 14. 10.</_>
    <_>
      5. 21. 27. 21. 8. 9. 9. 4.</_>
    <_>
      51. 11. 14. 16. 24. 3. 11. 5.</_>
    <_>
      2. 2. 1. 2. 2. 10. 15. 6.</_>
    <_>
      10. 18. 12. 13. 3. 13. 1. 25.</_>
    <_>
      14. 8. 21. 5. 11. 19. 5. 22.</_>
    <_>
      5. 5. 2. 10. 7. 15. 4. 20.</_>
    <_>
      15. 6. 10. 5. 9. 21. 7. 22.</_>
    <_>
      15. 8. 7. 7. 5. 17. 5. 23.</_>
    <_>
      6. 13. 14. 10. 24. 41. 22. 19.</_>
    <_>
      16. 2. 27. 6. 23. 18. 7. 6.</_>
    <_>
      9. 29. 83. 3. 15. 6. 7. 3.</_>
    <_>
      27. 12. 14. 8. 18. 36. 34. 1.</_>
    <_>
      24. 18. 41. 13. 21. 45. 11. 5.</_>
    <_>
      145. 3. 9. 27. 56. 21. 19. 17.</_>
    <_>
      8. 10. 12. 8. 9. 15. 5. 37.</_>
    <_>
      11. 1. 7. 1. 9. 21. 9. 2.</_>
    <_>
      10. 10. 49. 3. 9. 18. 4. 5.</_>
    <_>
      19. 20. 7. 19. 24. 38. 29. 5.</_>
    <_>
      16. 27. 6. 25. 16. 32. 30. 15.</_>
    <_>
      25. 7. 7. 9. 10. 20. 5. 6.</_>
    <_>
      15. 20. 20. 49. 20. 20. 7. 24.</_>
    <_>
      15. 19. 35. 1. 17. 33. 29. 15.</_>
    <_>
      12. 2. 25. 6. 16. 30. 14. 8.</_>
    <_>
      21. 8. 29. 8. 23. 25. 14. 20.</_>
    <_>
      12. 12. 27. 16. 16. 23. 27. 9.</_>
    <_>
      22. 12. 11. 7. 18. 19. 6. 14.</_>
    <_>
      20. 3. 24. 12. 22. 5. 5. 4.</_>
    <_>
      8. 13. 19. 11. 22. 7. 7. 7.</_>
    <_>
      10. 7. 6. 3. 5. 25. 8. 17.</_>
    <_>
      28. 15. 191. 10. 18. 3. 18. 3.</_>
    <_>
      51. 3. 11. 11. 44. 10. 12. 5.</_>
    <_>
      10. 1. 16. 0. 5. 5. 3. 5.</_>
    <_>
      20. 6. 13. 14. 25. 30. 13. 9.</_>
    <_>
      3. 12. 26. 14. 7. 18. 5. 24.</_>
    <_>
      9. 2. 11. 4. 10. 41. 10. 18.</_>
    <_>
      6. 6. 5. 5. 6. 40. 8. 8.</_>
    <_>
      26. 37. 9. 22. 16. 26. 15. 11.</_>
    <_>
      49. 14. 43. 14. 34. 14. 31. 16.</_>
    <_>
      40. 17. 31. 6. 33. 17. 24. 12.</_>
    <_>
      40. 18. 42. 19. 39. 21. 29. 6.</_>
    <_>
      37. 17. 23. 22. 22. 10. 31. 6.</_>
    <_>
      39. 11. 35. 12. 26. 24. 31. 6.</_>
    <_>
      26. 14. 40. 9. 23. 12. 36. 14.</_>
    <_>
      36. 17. 31. 16. 26. 12. 39. 4.</_>
    <_>
      45. 8. 42. 22. 35. 14. 44. 11.</_>
    <_>
      41. 20. 44. 17. 37. 17. 26. 12.</_>
    <_>
      35. 15. 34. 17. 27. 15. 27. 11.</_>
    <_>
      35. 16. 27. 14. 23. 15. 30. 14.</_>
    <_>
      22. 12. 31. 13. 30. 12. 44. 10.</_>
    <_>
      37. 19. 34. 15. 37. 9. 33. 13.</_>
    <_>
      37. 14. 28. 19. 25. 15. 36. 11.</_>
    <_>
      34. 27. 28. 19. 34. 24. 41. 12.</_>
    <_>
      44. 31. 34. 10. 36. 20. 32. 8.</_>
    <_>
      26. 19. 37. 13. 35. 15. 34. 7.</_>
    <_>
      35. 18. 28. 12. 28. 14. 44. 9.</_>
    <_>
      24. 15. 32. 21. 23. 18. 25. 9.</_>
    <_>
      42. 11. 31. 26. 44. 16. 32. 15.</_>
    <_>
      34. 22. 37. 21. 20. 22. 31. 10.</_>
    <_>
      37. 18. 34. 10. 22. 22. 29. 18.</_>
    <_>
      32. 22. 32. 23. 34. 25. 30. 9.</_>
    <_>
      28. 7. 22. 14. 21. 21. 32. 7.</_>
    <_>
      18. 12. 35. 17. 23. 13. 34. 13.</_>
    <_>
      38. 22. 30. 15. 21. 14. 29. 15.</_>
    <_>
      26. 15. 27. 20. 29. 16. 23. 15.</_>
    <_>
      30. 20. 31. 22. 41. 21. 49. 12.</_>
    <_>
      28. 18. 27. 22. 26. 22. 26. 8.</_>
    <_>
      38. 14. 28. 23. 31. 8. 37. 12.</_>
    <_>
      24. 9. 35. 12. 24. 28. 32. 9.</_>
    <_>
      24. 15. 33. 24. 37. 10. 30. 6.</_>
    <_>
      43. 14. 33. 14. 38. 15. 38. 8.</_>
    <_>
      40. 19. 32. 13. 40. 13. 31. 13.</_>
    <_>
      46. 11. 44. 12. 29. 14. 45. 9.</_>
    <_>
      24. 23. 29. 20. 38. 15. 35. 14.</_>
    <_>
      34. 19. 40. 17. 33. 14. 24. 14.</_>
    <_>
      36. 25. 34. 21. 38. 14. 26. 16.</_>
    <_>
      32. 13. 32. 20. 29. 13. 20. 8.</_>
    <_>
      34. 17. 40. 15. 26. 11. 28. 11.</_>
    <_>
      39. 12. 28. 16. 34. 18. 24. 6.</_>
    <_>
      39. 16. 43. 26. 28. 10. 33. 10.</_>
    <_>
      38. 12. 29. 8. 31. 14. 41. 7.</_>
    <_>
      24. 12. 26. 13. 27. 16. 35. 14.</_>
    <_>
      37. 16. 31. 17. 31. 12. 31. 10.</_>
    <_>
      28. 11. 33. 12. 24. 9. 31. 11.</_>
    <_>
      30. 24. 31. 14. 25. 15. 29. 11.</_>
    <_>
      29. 13. 32. 15. 29. 16. 44. 6.</_>
    <_>
      29. 12. 24. 11. 23. 17. 27. 6.</_>
    <_>
      31. 20. 50. 15. 32. 16. 31. 11.</_>
    <_>
      43. 17. 33. 14. 33. 11. 22. 12.</_>
    <_>
      30. 11. 33. 16. 28. 19. 40. 7.</_>
    <_>
      33. 18. 43. 19. 28. 19. 38. 3.</_>
    <_>
      34. 14. 36. 19. 35. 11. 33. 6.</_>
    <_>
      46. 16. 35. 20. 31. 10. 42. 6.</_>
    <_>
      48. 12. 32. 16. 32. 11. 34. 9.</_>
    <_>
      26. 22. 44. 20. 28. 14. 32. 8.</_>
    <_>
      20. 30. 15. 20. 20. 14. 36. 13.</_>
    <_>
      29. 25. 28. 22. 25. 11. 28. 14.</_>
    <_>
      40. 20. 37. 27. 29. 8. 22. 11.</_>
    <_>
      34. 10. 26. 17. 27. 17. 23. 10.</_>
    <_>
      22. 17. 24. 17. 25. 13. 22. 15.</_>
    <_>
      19. 20. 22. 19. 26. 25. 31. 14.</_>
    <_>
      24. 13. 31. 16. 23. 9. 26. 14.</_>
    <_>
      23. 17. 23. 15. 22. 14. 34. 12.</_>
    <_>
      25. 16. 21. 18. 15. 8. 34. 16.</_>
    <_>
      26. 16. 30. 13. 21. 7. 24. 8.</_>
    <_>
      25. 19. 23. 19. 30. 12. 36. 10.</_>
    <_>
      32. 20. 34. 16. 20. 12. 36. 7.</_>
    <_>
      34. 22. 35. 15. 36. 19. 28. 10.</_>
    <_>
      41. 16. 31. 19. 27. 18. 22. 18.</_>
    <_>
      32. 13. 31. 18. 23. 19. 29. 12.</_>
    <_>
      35. 12. 33. 20. 27. 19. 37. 13.</_>
    <_>
      29. 15. 30. 12. 26. 17. 28. 7.</_>
    <_>
      33. 11. 36. 11. 25. 11. 30. 11.</_>
    <_>
      16. 17. 37. 17. 21. 16. 27. 13.</_>
    <_>
      29. 13. 29. 19. 9. 13. 32. 14.</_>
    <_>
      36. 25. 22. 18. 22. 13. 19. 7.</_>
    <_>
      32. 15. 34. 22. 27. 9. 24. 6.</_>
    <_>
      36. 11. 31. 16. 32. 8. 34. 10.</_>
    <_>
      48. 17. 34. 17. 41. 20. 26. 10.</_>
    <_>
      29. 15. 33. 15. 30. 13. 39. 10.</_>
    <_>
      31. 27. 36. 23. 32. 16. 20. 16.</_>
    <_>
      35. 12. 22. 15. 24. 11. 27. 11.</_>
    <_>
      20. 11. 29. 16. 26. 14. 24. 8.</_>
    <_>
      46. 16. 30. 18. 34. 14. 33. 7.</_>
    <_>
      25. 28. 32. 17. 33. 17. 21. 8.</_>
    <_>
      27. 13. 27. 18. 30. 13. 20. 12.</_>
    <_>
      25. 21. 29. 17. 26. 13. 28. 14.</_>
    <_>
      30. 20. 31. 18. 25. 8. 23. 23.</_>
    <_>
      24. 11. 26. 15. 27. 19. 35. 13.</_>
    <_>
      22. 35. 35. 8. 18. 16. 25. 16.</_>
    <_>
      31. 13. 24. 9. 23. 14. 20. 8.</_>
    <_>
      33. 16. 32. 19. 37. 22. 20. 11.</_>
    <_>
      27. 20. 24. 26. 23. 17. 32. 11.</_>
    <_>
      31. 17. 27. 22. 25. 22. 39. 12.</_>
    <_>
      25. 19. 23. 27. 22. 9. 26. 17.</_>
    <_>
      31. 14. 25. 20. 21. 9. 18. 24.</_>
    <_>
      26. 21. 28. 25. 24. 15. 26. 15.</_>
    <_>
      37. 16. 28. 13. 18. 14. 15. 10.</_>
    <_>
      36. 15. 39. 17. 28. 14. 27. 5.</_>
    <_>
      30. 18. 23. 19. 21. 16. 35. 16.</_>
    <_>
      34. 16. 33. 17. 24. 20. 26. 14.</_>
    <_>
      34. 19. 35. 33. 18. 21. 21. 13.</_>
    <_>
      36. 19. 35. 15. 27. 19. 25. 13.</_>
    <_>
      22. 21. 35. 14. 28. 28. 28. 7.</_>
    <_>
      28. 20. 28. 10. 20. 15. 29. 7.</_>
    <_>
      20. 11. 22. 15. 16. 10. 35. 15.</_>
    <_>
      37. 13. 23. 21. 26. 15. 34. 9.</_>
    <_>
      31. 24. 29. 28. 27. 14. 21. 21.</_>
    <_>
      30. 14. 27. 27. 26. 13. 26. 16.</_>
    <_>
      26. 16. 27. 29. 26. 19. 30. 12.</_>
    <_>
      34. 19. 38. 23. 32. 20. 25. 10.</_>
    <_>
      36. 17. 33. 13. 34. 12. 33. 19.</_>
    <_>
      34. 17. 40. 18. 32. 11. 54. 15.</_>
    <_>
      37. 14. 32. 20. 36. 17. 23. 28.</_>
    <_>
      26. 15. 37. 17. 36. 11. 42. 14.</_>
    <_>
      36. 26. 26. 29. 20. 15. 31. 18.</_>
    <_>
      30. 15. 20. 21. 25. 15. 24. 15.</_>
    <_>
      21. 11. 25. 24. 23. 22. 23. 15.</_>
    <_>
      25. 13. 23. 16. 20. 6. 37. 16.</_>
    <_>
      28. 13. 25. 24. 18. 12. 27. 11.</_>
    <_>
      35. 14. 26. 11. 30. 19. 12. 9.</_>
    <_>
      38. 19. 30. 25. 29. 18. 26. 12.</_>
    <_>
      30. 10. 25. 13. 20. 14. 27. 17.</_>
    <_>
      40. 23. 39. 14. 29. 13. 23. 12.</_>
    <_>
      35. 26. 33. 22. 20. 20. 24. 11.</_>
    <_>
      26. 16. 28. 17. 31. 11. 21. 13.</_>
    <_>
      23. 11. 35. 19. 19. 25. 31. 11.</_>
    <_>
      33. 18. 30. 15. 24. 9. 22. 12.</_>
    <_>
      30. 24. 30. 17. 28. 8. 32. 8.</_>
    <_>
      37. 19. 36. 12. 25. 12. 22. 11.</_>
    <_>
      30. 15. 43. 18. 21. 11. 19. 13.</_>
    <_>
      35. 16. 38. 25. 24. 26. 23. 11.</_>
    <_>
      28. 22. 29. 32. 21. 11. 12. 13.</_>
    <_>
      27. 22. 26. 28. 22. 21. 27. 16.</_>
    <_>
      31. 18. 29. 20. 24. 10. 19. 19.</_>
    <_>
      25. 10. 22. 16. 14. 12. 25. 20.</_>
    <_>
      34. 25. 27. 26. 25. 18. 22. 15.</_>
    <_>
      24. 11. 33. 17. 33. 19. 29. 4.</_>
    <_>
      36. 19. 37. 21. 21. 19. 22. 13.</_>
    <_>
      43. 23. 35. 19. 26. 10. 28. 14.</_>
    <_>
      32. 19. 34. 9. 20. 14. 18. 11.</_>
    <_>
      28. 20. 27. 29. 31. 13. 26. 15.</_>
    <_>
      34. 25. 31. 14. 33. 18. 22. 22.</_>
    <_>
      29. 18. 31. 30. 22. 28. 17. 16.</_>
    <_>
      33. 20. 26. 22. 28. 22. 29. 11.</_>
    <_>
      25. 14. 30. 32. 26. 11. 31. 14.</_>
    <_>
      24. 22. 30. 17. 26. 16. 17. 19.</_>
    <_>
      35. 19. 28. 18. 23. 14. 29. 13.</_>
    <_>
      18. 20. 33. 16. 21. 11. 37. 7.</_>
    <_>
      42. 8. 30. 16. 21. 17. 30. 7.</_>
    <_>
      29. 13. 31. 19. 32. 19. 22. 10.</_>
    <_>
      29. 21. 31. 28. 37. 10. 20. 14.</_>
    <_>
      29. 15. 32. 8. 30. 20. 40. 13.</_>
    <_>
      29. 15. 35. 31. 22. 19. 31. 10.</_>
    <_>
      34. 21. 30. 26. 35. 16. 21. 9.</_>
    <_>
      40. 14. 33. 20. 36. 17. 28. 7.</_>
    <_>
      40. 14. 35. 11. 27. 14. 14. 16.</_>
    <_>
      26. 30. 28. 21. 26. 13. 42. 18.</_>
    <_>
      35. 15. 20. 29. 27. 21. 33. 11.</_>
    <_>
      30. 21. 37. 18. 37. 13. 29. 15.</_>
    <_>
      35. 14. 31. 18. 25. 15. 29. 17.</_>
    <_>
      30. 18. 21. 26. 21. 18. 27. 14.</_>
    <_>
      29. 22. 30. 24. 23. 13. 31. 17.</_>
    <_>
      32. 16. 33. 17. 20. 5. 27. 23.</_>
    <_>
      32. 16. 29. 15. 32. 20. 20. 11.</_>
    <_>
      37. 13. 31. 21. 25. 22. 31. 11.</_>
    <_>
      24. 19. 34. 13. 30. 20. 25. 17.</_>
    <_>
      27. 9. 34. 20. 24. 11. 33. 10.</_>
    <_>
      31. 12. 28. 15. 22. 13. 20. 14.</_>
    <_>
      34. 16. 29. 12. 29. 19. 23. 9.</_>
    <_>
      36. 12. 31. 14. 36. 18. 24. 8.</_>
    <_>
      25. 14. 29. 21. 26. 10. 28. 6.</_>
    <_>
      28. 8. 31. 19. 28. 21. 28. 13.</_>
    <_>
      33. 16. 27. 19. 39. 18. 33. 10.</_>
    <_>
      34. 12. 30. 11. 31. 17. 31. 5.</_>
    <_>
      26. 27. 34. 16. 17. 16. 24. 11.</_>
    <_>
      24. 12. 22. 14. 24. 20. 39. 16.</_>
    <_>
      27. 11. 27. 20. 24. 22. 17. 10.</_>
    <_>
      32. 20. 34. 24. 24. 20. 26. 20.</_>
    <_>
      27. 21. 28. 17. 23. 16. 21. 17.</_>
    <_>
      28. 18. 32. 13. 29. 14. 19. 7.</_>
    <_>
      26. 25. 23. 29. 25. 16. 26. 9.</_>
    <_>
      42. 6. 40. 16. 30. 10. 29. 12.</_>
    <_>
      25. 17. 29. 14. 23. 19. 36. 9.</_>
    <_>
      33. 15. 33. 23. 23. 19. 15. 10.</_>
    <_>
      30. 18. 30. 14. 29. 29. 20. 12.</_>
    <_>
      41. 17. 26. 15. 31. 20. 24. 8.</_>
    <_>
      22. 18. 33. 20. 29. 26. 36. 12.</_>
    <_>
      38. 14. 28. 24. 36. 14. 18. 8.</_>
    <_>
      45. 21. 44. 17. 38. 18. 38. 13.</_>
    <_>
      37. 15. 36. 21. 40. 14. 32. 8.</_>
    <_>
      37. 24. 28. 32. 35. 14. 21. 10.</_>
    <_>
      50. 9. 38. 7. 42. 12. 41. 6.</_>
    <_>
      37. 13. 31. 24. 28. 25. 30. 9.</_>
    <_>
      22. 17. 23. 15. 25. 16. 35. 18.</_>
    <_>
      22. 14. 35. 24. 25. 16. 28. 13.</_>
    <_>
      44. 20. 35. 31. 29. 18. 19. 17.</_>
    <_>
      44. 27. 42. 12. 40. 13. 32. 9.</_>
    <_>
      33. 17. 35. 17. 31. 15. 35. 4.</_>
    <_>
      32. 15. 39. 15. 38. 13. 37. 10.</_>
    <_>
      35. 15. 35. 13. 27. 18. 29. 14.</_>
    <_>
      37. 21. 34. 15. 38. 20. 23. 11.</_>
    <_>
      34. 29. 41. 21. 38. 10. 20. 15.</_>
    <_>
      35. 17. 31. 18. 30. 13. 50. 13.</_>
    <_>
      25. 13. 22. 16. 25. 13. 28. 13.</_>
    <_>
      25. 19. 31. 15. 40. 25. 41. 8.</_>
    <_>
      39. 21. 47. 17. 36. 20. 39. 11.</_>
    <_>
      34. 15. 31. 13. 41. 20. 40. 12.</_>
    <_>
      30. 15. 29. 20. 27. 16. 33. 7.</_>
    <_>
      31. 26. 21. 22. 31. 17. 30. 8.</_>
    <_>
      37. 22. 35. 25. 35. 14. 45. 7.</_>
    <_>
      36. 16. 34. 12. 29. 23. 30. 7.</_></support_vectors>
  <decision_functions>
    <_>
      <sv_count>375</sv_count>
      <rho>2.4766355140186916e-001</rho>
      <alpha>
        1. 1. 1. 1. 1. 1. 1. 1. 1. 1. 1. 1. 1. 1. 1. 1. 1. 1. 1. 1. 1.
        1. 1. 1. 1. 1. 1. 1. 1. 1. 1. 1. 1. 1. 1. 1. 1. 1. 1. 1. 1. 1.
        1. 1. 1. 1. 1. 1. 1. 1. 1. 1. 1. 1. 1. 1. 1. 1. 1. 1. 1. 1. 1.
        1. 1. 1. 1. 1. 1. 1. 1. 1. 1. 1. 1. 1. 1. 1. 1. 1. 1. 1. 1. 1.
        1. 1. 1. 1. 1. 1. 1. 1. 1. 1. 1. 1. 1. 1. 1. 1. 1. 1. 1. 1. 1.
        1. 1. 1. 1. 1. 1. 1. 1. 1. 1. 1. 1. 1. 1. 1. 1. 1. 1. 1. 1. 1.
        1. 1. 1. 1. 1. 1. 1. 1. 1. 1. 1. 1. 1. 1. 1. 1. 1. 1. 1. 1. 1.
        1. 1. 1. 1. 1. 1. 1. 1. 1. 1. 1. 1. 1. 1.
        -7.5233644247055054e-001 -7.5233644247055054e-001
        -7.5233644247055054e-001 -7.5233644247055054e-001
        -7.5233644247055054e-001 -7.5233644247055054e-001
        -7.5233644247055054e-001 -7.5233644247055054e-001
        -7.5233644247055054e-001 -7.5233644247055054e-001
        -7.5233644247055054e-001 -7.5233644247055054e-001
        -7.5233644247055054e-001 -7.5233644247055054e-001
        -7.5233644247055054e-001 -7.5233644247055054e-001
        -7.5233644247055054e-001 -7.5233644247055054e-001
        -7.5233644247055054e-001 -7.5233644247055054e-001
        -7.5233644247055054e-001 -7.5233644247055054e-001
        -7.5233644247055054e-001 -7.5233644247055054e-001
        -7.5233644247055054e-001 -7.5233644247055054e-001
        -7.5233644247055054e-001 -7.5233644247055054e-001
        -7.5233644247055054e-001 -7.5233644247055054e-001
        -7.5233644247055054e-001 -7.5233644247055054e-001
        -7.5233644247055054e-001 -7.5233644247055054e-001
        -7.5233644247055054e-001 -7.5233644247055054e-001
        -7.5233644247055054e-001 -7.5233644247055054e-001
        -7.5233644247055054e-001 -7.5233644247055054e-001
        -7.5233644247055054e-001 -7.5233644247055054e-001
        -7.5233644247055054e-001 -7.5233644247055054e-001
        -7.5233644247055054e-001 -7.5233644247055054e-001
        -7.5233644247055054e-001 -7.5233644247055054e-001
        -7.5233644247055054e-001 -7.5233644247055054e-001
        -7.5233644247055054e-001 -7.5233644247055054e-001
        -7.5233644247055054e-001 -7.5233644247055054e-001
        -7.5233644247055054e-001 -7.5233644247055054e-001
        -7.5233644247055054e-001 -7.5233644247055054e-001
        -7.5233644247055054e-001 -7.5233644247055054e-001
        -7.5233644247055054e-001 -7.5233644247055054e-001
        -7.5233644247055054e-001 -7.5233644247055054e-001
        -7.5233644247055054e-001 -7.5233644247055054e-001
        -7.5233644247055054e-001 -7.5233644247055054e-001
        -7.5233644247055054e-001 -7.5233644247055054e-001
        -7.5233644247055054e-001 -7.5233644247055054e-001
        -7.5233644247055054e-001 -7.5233644247055054e-001
        -7.5233644247055054e-001 -7.5233644247055054e-001
        -7.5233644247055054e-001 -7.5233644247055054e-001
        -7.5233644247055054e-001 -7.5233644247055054e-001
        -7.5233644247055054e-001 -7.5233644247055054e-001
        -7.5233644247055054e-001 -7.5233644247055054e-001
        -7.5233644247055054e-001 -7.5233644247055054e-001
        -7.5233644247055054e-001 -7.5233644247055054e-001
        -7.5233644247055054e-001 -7.5233644247055054e-001
        -7.5233644247055054e-001 -7.5233644247055054e-001
        -7.5233644247055054e-001 -7.5233644247055054e-001
        -7.5233644247055054e-001 -7.5233644247055054e-001
        -7.5233644247055054e-001 -7.5233644247055054e-001
        -7.5233644247055054e-001 -7.5233644247055054e-001
        -7.5233644247055054e-001 -7.5233644247055054e-001
        -7.5233644247055054e-001 -7.5233644247055054e-001
        -7.5233644247055054e-001 -7.5233644247055054e-001
        -7.5233644247055054e-001 -7.5233644247055054e-001
        -7.5233644247055054e-001 -7.5233644247055054e-001
        -7.5233644247055054e-001 -7.5233644247055054e-001
        -7.5233644247055054e-001 -7.5233644247055054e-001
        -7.5233644247055054e-001 -7.5233644247055054e-001
        -7.5233644247055054e-001 -7.5233644247055054e-001
        -7.5233644247055054e-001 -7.5233644247055054e-001
        -7.5233644247055054e-001 -7.5233644247055054e-001
        -7.5233644247055054e-001 -7.5233644247055054e-001
        -7.5233644247055054e-001 -7.5233644247055054e-001
        -7.5233644247055054e-001 -7.5233644247055054e-001
        -7.5233644247055054e-001 -7.5233644247055054e-001
        -7.5233644247055054e-001 -7.5233644247055054e-001
        -7.5233644247055054e-001 -7.5233644247055054e-001
        -7.5233644247055054e-001 -7.5233644247055054e-001
        -7.5233644247055054e-001 -7.5233644247055054e-001
        -7.5233644247055054e-001 -7.5233644247055054e-001
        -7.5233644247055054e-001 -7.5233644247055054e-001
        -7.5233644247055054e-001 -7.5233644247055054e-001
        -7.5233644247055054e-001 -7.5233644247055054e-001
        -7.5233644247055054e-001 -7.5233644247055054e-001
        -7.5233644247055054e-001 -7.5233644247055054e-001
        -7.5233644247055054e-001 -7.5233644247055054e-001
        -7.5233644247055054e-001 -7.5233644247055054e-001
        -7.5233644247055054e-001 -7.5233644247055054e-001
        -7.5233644247055054e-001 -7.5233644247055054e-001
        -7.5233644247055054e-001 -7.5233644247055054e-001
        -7.5233644247055054e-001 -7.5233644247055054e-001
        -7.5233644247055054e-001 -7.5233644247055054e-001
        -7.5233644247055054e-001 -7.5233644247055054e-001
        -7.5233644247055054e-001 -7.5233644247055054e-001
        -7.5233644247055054e-001 -7.5233644247055054e-001
        -7.5233644247055054e-001 -7.5233644247055054e-001
        -7.5233644247055054e-001 -7.5233644247055054e-001
        -7.5233644247055054e-001 -7.5233644247055054e-001
        -7.5233644247055054e-001 -7.5233644247055054e-001
        -7.5233644247055054e-001 -7.5233644247055054e-001
        -7.5233644247055054e-001 -7.5233644247055054e-001
        -7.5233644247055054e-001 -7.5233644247055054e-001
        -7.5233644247055054e-001 -7.5233644247055054e-001
        -7.5233650207519531e-001 -7.5233650207519531e-001
        -7.5233650207519531e-001 -7.5233650207519531e-001
        -7.5233650207519531e-001 -7.5233650207519531e-001
        -7.5233650207519531e-001 -7.5233650207519531e-001
        -7.5233650207519531e-001 -7.5233650207519531e-001
        -7.5233650207519531e-001 -7.5233650207519531e-001
        -7.5233650207519531e-001 -7.5233650207519531e-001
        -7.5233650207519531e-001 -7.5233650207519531e-001
        -7.5233650207519531e-001 -7.5233650207519531e-001
        -7.5233650207519531e-001 -7.5233650207519531e-001
        -7.5233650207519531e-001 -7.5233650207519531e-001
        -7.5233644247055054e-001 -7.5233644247055054e-001
        -7.5233644247055054e-001 -7.5233644247055054e-001
        -7.5233644247055054e-001 -7.5233644247055054e-001</alpha>
      <index>
        0 1 2 3 4 5 6 7 8 9 10 11 12 13 14 15 16 17 18 19 20 21 22 23 24
        25 26 27 28 29 30 31 32 33 34 35 36 37 38 39 40 41 42 43 44 45
        46 47 48 49 50 51 52 53 54 55 56 57 58 59 60 61 62 63 64 65 66
        67 68 69 70 71 72 73 74 75 76 77 78 79 80 81 82 83 84 85 86 87
        88 89 90 91 92 93 94 95 96 97 98 99 100 101 102 103 104 105 106
        107 108 109 110 111 112 113 114 115 116 117 118 119 120 121 122
        123 124 125 126 127 128 129 130 131 132 133 134 135 136 137 138
        139 140 141 142 143 144 145 146 147 148 149 150 151 152 153 154
        155 156 157 158 159 160 161 162 163 164 165 166 167 168 169 170
        171 172 173 174 175 176 177 178 179 180 181 182 183 184 185 186
        187 188 189 190 191 192 193 194 195 196 197 198 199 200 201 202
        203 204 205 206 207 208 209 210 211 212 213 214 215 216 217 218
        219 220 221 222 223 224 225 226 227 228 229 230 231 232 233 234
        235 236 237 238 239 240 241 242 243 244 245 246 247 248 249 250
        251 252 253 254 255 256 257 258 259 260 261 262 263 264 265 266
        267 268 269 270 271 272 273 274 275 276 277 278 279 280 281 282
        283 284 285 286 287 288 289 290 291 292 293 294 295 296 297 298
        299 300 301 302 303 304 305 306 307 308 309 310 311 312 313 314
        315 316 317 318 319 320 321 322 323 324 325 326 327 328 329 330
        331 332 333 334 335 336 337 338 339 340 341 342 343 344 345 346
        347 348 349 350 351 352 353 354 355 356 357 358 359 360 361 362
        363 364 365 366 367 368 369 370 371 372 373 374</index></_></decision_functions></my_svm>
</opencv_storage>
